digraph Tree {
node [shape=box] ;
0 [label="X[0] <= 20181125.0\nmse = 0.113\nsamples = 20000\nvalue = 0.87"] ;
1 [label="X[0] <= 20180927.0\nmse = 0.12\nsamples = 15933\nvalue = 0.86"] ;
0 -> 1 [labeldistance=2.5, labelangle=45, headlabel="True"] ;
2 [label="X[0] <= 20180313.0\nmse = 0.114\nsamples = 11086\nvalue = 0.869"] ;
1 -> 2 ;
3 [label="mse = 0.13\nsamples = 3658\nvalue = 0.847"] ;
2 -> 3 ;
4 [label="mse = 0.106\nsamples = 7428\nvalue = 0.88"] ;
2 -> 4 ;
5 [label="mse = 0.134\nsamples = 4847\nvalue = 0.84"] ;
1 -> 5 ;
6 [label="mse = 0.083\nsamples = 4067\nvalue = 0.908"] ;
0 -> 6 [labeldistance=2.5, labelangle=-45, headlabel="False"] ;
}